digraph Tree {
node [shape=box] ;
0 [label="X[0] <= 9.5\nmae = 180500.0\nsamples = 10\nvalue = 130000.0"] ;
1 [label="X[0] <= 6.5\nmae = 101666.667\nsamples = 9\nvalue = 110000.0"] ;
0 -> 1 [labeldistance=2.5, labelangle=45, headlabel="True"] ;
2 [label="X[0] <= 3.5\nmae = 30833.333\nsamples = 6\nvalue = 70000.0"] ;
1 -> 2 ;
3 [label="X[0] <= 2.5\nmae = 5000.0\nsamples = 3\nvalue = 50000.0"] ;
2 -> 3 ;
4 [label="X[0] <= 1.5\nmae = 2500.0\nsamples = 2\nvalue = 47500.0"] ;
3 -> 4 ;
5 [label="mae = 0.0\nsamples = 1\nvalue = 45000.0"] ;
4 -> 5 ;
6 [label="mae = 0.0\nsamples = 1\nvalue = 50000.0"] ;
4 -> 6 ;
7 [label="mae = 0.0\nsamples = 1\nvalue = 60000.0"] ;
3 -> 7 ;
8 [label="X[0] <= 5.5\nmae = 23333.333\nsamples = 3\nvalue = 110000.0"] ;
2 -> 8 ;
9 [label="X[0] <= 4.5\nmae = 15000.0\nsamples = 2\nvalue = 95000.0"] ;
8 -> 9 ;
10 [label="mae = 0.0\nsamples = 1\nvalue = 80000.0"] ;
9 -> 10 ;
11 [label="mae = 0.0\nsamples = 1\nvalue = 110000.0"] ;
9 -> 11 ;
12 [label="mae = 0.0\nsamples = 1\nvalue = 150000.0"] ;
8 -> 12 ;
13 [label="X[0] <= 8.5\nmae = 100000.0\nsamples = 3\nvalue = 300000.0"] ;
1 -> 13 ;
14 [label="X[0] <= 7.5\nmae = 50000.0\nsamples = 2\nvalue = 250000.0"] ;
13 -> 14 ;
15 [label="mae = 0.0\nsamples = 1\nvalue = 200000.0"] ;
14 -> 15 ;
16 [label="mae = 0.0\nsamples = 1\nvalue = 300000.0"] ;
14 -> 16 ;
17 [label="mae = 0.0\nsamples = 1\nvalue = 500000.0"] ;
13 -> 17 ;
18 [label="mae = 0.0\nsamples = 1\nvalue = 1000000.0"] ;
0 -> 18 [labeldistance=2.5, labelangle=-45, headlabel="False"] ;
}